GIS
284
0.0
2
high
low
2
568 0
185 1
753
Q8WYL5;P31146
Q8WYL5;Q9BR76
P28562;P31146
P28562;Q9BR76
IPR014876;IPR015048
IPR014876;IPR015049
IPR014876;IPR015505
IPR014876;IPR001680
IPR014876;IPR006311
IPR000340;IPR015048
IPR000340;IPR015049
IPR000340;IPR015505
IPR000340;IPR001680
IPR000340;IPR006311
IPR000387;IPR015048
IPR000387;IPR015049
IPR000387;IPR015505
IPR000387;IPR001680
IPR000387;IPR006311
Q9Y2R2;P06239
Q9Y2R2;P07948
IPR000242;IPR008266
IPR000242;IPR000719
IPR000242;IPR001452
IPR000242;IPR001245
IPR000242;IPR000980
IPR000387;IPR008266
IPR000387;IPR000719
IPR000387;IPR001452
IPR000387;IPR001245
IPR000387;IPR000980
GO:0004725;GO:0004722
GO:0004725;GO:0000074
GO:0004725;GO:0004713
GO:0004725;GO:0042169
GO:0004725;GO:0051209
GO:0004725;GO:0042610
GO:0004725;GO:0045121
GO:0004725;GO:0006882
GO:0004725;GO:0030217
GO:0004725;GO:0006917
GO:0004725;GO:0051117
GO:0004725;GO:0007265
GO:0004725;GO:0019901
GO:0004725;GO:0000242
GO:0004725;GO:0042493
GO:0004725;GO:0043548
GO:0004725;GO:0006919
GO:0004725;GO:0050862
GO:0004725;GO:0006468
GO:0004725;GO:0050870
GO:0004725;GO:0042609
GO:0007165;GO:0004722
GO:0007165;GO:0000074
GO:0007165;GO:0004713
GO:0007165;GO:0042169
GO:0007165;GO:0051209
GO:0007165;GO:0042610
GO:0007165;GO:0045121
GO:0007165;GO:0006882
GO:0007165;GO:0030217
GO:0007165;GO:0006917
GO:0007165;GO:0051117
GO:0007165;GO:0007265
GO:0007165;GO:0019901
GO:0007165;GO:0000242
GO:0007165;GO:0042493
GO:0007165;GO:0043548
GO:0007165;GO:0006919
GO:0007165;GO:0050862
GO:0007165;GO:0006468
GO:0007165;GO:0050870
GO:0007165;GO:0042609
GO:0006470;GO:0004722
GO:0006470;GO:0000074
GO:0006470;GO:0004713
GO:0006470;GO:0042169
GO:0006470;GO:0051209
GO:0006470;GO:0042610
GO:0006470;GO:0045121
GO:0006470;GO:0006882
GO:0006470;GO:0030217
GO:0006470;GO:0006917
GO:0006470;GO:0051117
GO:0006470;GO:0007265
GO:0006470;GO:0019901
GO:0006470;GO:0000242
GO:0006470;GO:0042493
GO:0006470;GO:0043548
GO:0006470;GO:0006919
GO:0006470;GO:0050862
GO:0006470;GO:0006468
GO:0006470;GO:0050870
GO:0006470;GO:0042609
Q9Y2R2;Q9V9J3
Q9Y2R2;P43403
Q9Y2R2;P00519
Q9Y2R2;P00520
Q9Y2R2;P42684
IPR000242;IPR012234
IPR000387;IPR012234
GO:0004725;GO:0006955
GO:0004725;GO:0045582
GO:0004725;GO:0007243
GO:0004725;GO:0042101
GO:0004725;GO:0005524
GO:0004725;GO:0005737
GO:0004725;GO:0045059
GO:0007165;GO:0006955
GO:0007165;GO:0045582
GO:0007165;GO:0007243
GO:0007165;GO:0042101
GO:0007165;GO:0005524
GO:0007165;GO:0005737
GO:0007165;GO:0045059
GO:0006470;GO:0006955
GO:0006470;GO:0045582
GO:0006470;GO:0007243
GO:0006470;GO:0042101
GO:0006470;GO:0005524
GO:0006470;GO:0005737
GO:0006470;GO:0045059
P06213;Q9W4F5
P06213;P18031
P06213;Q9W0G1
P06213;P17706
P08069;Q9W4F5
P08069;P18031
P08069;Q9W0G1
P08069;P17706
IPR008957;IPR000242
IPR008957;IPR012265
IPR008957;IPR002035
IPR008957;IPR000387
IPR006212;IPR000242
IPR006212;IPR012265
IPR006212;IPR002035
IPR006212;IPR000387
IPR008266;IPR000242
IPR008266;IPR012265
IPR008266;IPR002035
IPR008266;IPR000387
IPR002011;IPR000242
IPR002011;IPR012265
IPR002011;IPR002035
IPR002011;IPR000387
IPR000494;IPR000242
IPR000494;IPR012265
IPR000494;IPR002035
IPR000494;IPR000387
IPR000719;IPR000242
IPR000719;IPR012265
IPR000719;IPR002035
IPR000719;IPR000387
IPR003961;IPR000242
IPR003961;IPR012265
IPR003961;IPR002035
IPR003961;IPR000387
IPR006211;IPR000242
IPR006211;IPR012265
IPR006211;IPR002035
IPR006211;IPR000387
IPR001245;IPR000242
IPR001245;IPR012265
IPR001245;IPR002035
IPR001245;IPR000387
GO:0042169;GO:0004725
GO:0042169;GO:0007165
GO:0007275;GO:0004725
GO:0007275;GO:0007165
GO:0005975;GO:0004725
GO:0005975;GO:0007165
GO:0051290;GO:0004725
GO:0051290;GO:0007165
GO:0005009;GO:0004725
GO:0005009;GO:0007165
GO:0006091;GO:0004725
GO:0006091;GO:0007165
GO:0043559;GO:0004725
GO:0043559;GO:0007165
GO:0005887;GO:0004725
GO:0005887;GO:0007165
GO:0004716;GO:0004725
GO:0004716;GO:0007165
GO:0046777;GO:0004725
GO:0046777;GO:0007165
GO:0043548;GO:0004725
GO:0043548;GO:0007165
GO:0008286;GO:0004725
GO:0008286;GO:0007165
GO:0005066;GO:0004725
GO:0005066;GO:0007165
GO:0051425;GO:0004725
GO:0051425;GO:0007165
P18031;O00401
P18031;Q9VAT0
Q9W0G1;O00401
Q9W0G1;Q9VAT0
P17706;O00401
P17706;Q9VAT0
IPR000242;IPR000095
IPR000242;IPR003124
IPR000242;IPR011993
IPR000242;IPR000697
IPR012265;IPR000095
IPR012265;IPR003124
IPR012265;IPR011993
IPR012265;IPR000697
IPR000387;IPR000095
IPR000387;IPR003124
IPR000387;IPR011993
IPR000387;IPR000697
GO:0004725;GO:0005083
GO:0004725;GO:0008154
GO:0004725;GO:0006928
GO:0004725;GO:0015629
GO:0004725;GO:0006461
GO:0006470;GO:0005083
GO:0006470;GO:0008154
GO:0006470;GO:0006928
GO:0006470;GO:0015629
GO:0006470;GO:0006461
Q9W4F5;P35609
Q9W4F5;P12814
Q9W4F5;Q01082-2
P18031;P35609
P18031;P12814
P18031;Q01082-2
Q9W0G1;P35609
Q9W0G1;P12814
Q9W0G1;Q01082-2
P17706;P35609
P17706;P12814
P17706;Q01082-2
IPR000242;IPR002017
IPR000242;IPR002048
IPR000242;IPR001715
IPR000242;IPR011992
IPR000242;IPR014837
IPR000242;IPR001589
IPR012265;IPR002017
IPR012265;IPR002048
IPR012265;IPR001715
IPR012265;IPR011992
IPR012265;IPR014837
IPR012265;IPR001589
IPR002035;IPR002017
IPR002035;IPR002048
IPR002035;IPR001715
IPR002035;IPR011992
IPR002035;IPR014837
IPR002035;IPR001589
IPR000387;IPR002017
IPR000387;IPR002048
IPR000387;IPR001715
IPR000387;IPR011992
IPR000387;IPR014837
IPR000387;IPR001589
GO:0004725;GO:0048041
GO:0004725;GO:0051271
GO:0004725;GO:0017166
GO:0004725;GO:0031143
GO:0004725;GO:0005178
GO:0004725;GO:0005925
GO:0004725;GO:0042981
GO:0007165;GO:0048041
GO:0007165;GO:0051271
GO:0007165;GO:0017166
GO:0007165;GO:0031143
GO:0007165;GO:0005178
GO:0007165;GO:0005925
GO:0007165;GO:0042981
Q9V9J3;P16621
P00519;P16621
P00522;P16621
P00520;P16621
P42684;P16621
IPR008266;IPR008957
IPR008266;IPR007110
IPR008266;IPR003598
IPR008266;IPR003961
IPR008266;IPR013783
IPR008266;IPR013098
IPR008266;IPR003962
IPR008266;IPR013151
IPR000719;IPR008957
IPR000719;IPR007110
IPR000719;IPR003598
IPR000719;IPR003961
IPR000719;IPR013783
IPR000719;IPR013098
IPR000719;IPR003962
IPR000719;IPR013151
IPR001452;IPR008957
IPR001452;IPR000242
IPR001452;IPR007110
IPR001452;IPR003598
IPR001452;IPR003961
IPR001452;IPR013783
IPR001452;IPR013098
IPR001452;IPR003962
IPR001452;IPR013151
IPR001452;IPR000387
IPR001245;IPR008957
IPR001245;IPR007110
IPR001245;IPR003598
IPR001245;IPR003961
IPR001245;IPR013783
IPR001245;IPR013098
IPR001245;IPR003962
IPR001245;IPR013151
IPR000980;IPR008957
IPR000980;IPR000242
IPR000980;IPR007110
IPR000980;IPR003598
IPR000980;IPR003961
IPR000980;IPR013783
IPR000980;IPR013098
IPR000980;IPR003962
IPR000980;IPR013151
IPR000980;IPR000387
GO:0004713;GO:0007155
GO:0004713;GO:0045467
GO:0004713;GO:0031290
GO:0004713;GO:0008045
GO:0004713;GO:0008360
GO:0004713;GO:0004725
GO:0004713;GO:0006470
GO:0004713;GO:0001700
GO:0008064;GO:0007155
GO:0008064;GO:0045467
GO:0008064;GO:0031290
GO:0008064;GO:0008045
GO:0008064;GO:0008360
GO:0008064;GO:0004725
GO:0008064;GO:0006470
GO:0008064;GO:0001700
GO:0007391;GO:0007155
GO:0007391;GO:0045467
GO:0007391;GO:0031290
GO:0007391;GO:0008045
GO:0007391;GO:0008360
GO:0007391;GO:0004725
GO:0007391;GO:0006470
GO:0007391;GO:0001700
GO:0007417;GO:0007155
GO:0007417;GO:0045467
GO:0007417;GO:0031290
GO:0007417;GO:0008045
GO:0007417;GO:0008360
GO:0007417;GO:0004725
GO:0007417;GO:0006470
GO:0007417;GO:0001700
GO:0019897;GO:0007155
GO:0019897;GO:0045467
GO:0019897;GO:0031290
GO:0019897;GO:0008045
GO:0019897;GO:0008360
GO:0019897;GO:0004725
GO:0019897;GO:0006470
GO:0019897;GO:0001700
GO:0006468;GO:0007155
GO:0006468;GO:0045467
GO:0006468;GO:0031290
GO:0006468;GO:0008045
GO:0006468;GO:0008360
GO:0006468;GO:0004725
GO:0006468;GO:0006470
GO:0006468;GO:0001700
GO:0005737;GO:0007155
GO:0005737;GO:0045467
GO:0005737;GO:0031290
GO:0005737;GO:0008045
GO:0005737;GO:0008360
GO:0005737;GO:0004725
GO:0005737;GO:0006470
GO:0005737;GO:0001700
GO:0007411;GO:0007155
GO:0007411;GO:0045467
GO:0007411;GO:0031290
GO:0007411;GO:0008045
GO:0007411;GO:0008360
GO:0007411;GO:0004725
GO:0007411;GO:0006470
GO:0007411;GO:0001700
GO:0008360;GO:0007155
GO:0008360;GO:0045467
GO:0008360;GO:0031290
GO:0008360;GO:0008045
GO:0008360;GO:0004725
GO:0008360;GO:0006470
GO:0008360;GO:0001700
GO:0005927;GO:0007155
GO:0005927;GO:0045467
GO:0005927;GO:0031290
GO:0005927;GO:0008045
GO:0005927;GO:0008360
GO:0005927;GO:0004725
GO:0005927;GO:0006470
GO:0005927;GO:0001700
GO:0005911;GO:0007155
GO:0005911;GO:0045467
GO:0005911;GO:0031290
GO:0005911;GO:0008045
GO:0005911;GO:0008360
GO:0005911;GO:0004725
GO:0005911;GO:0006470
GO:0005911;GO:0001700
P16621;Q8T4F7
IPR008957;IPR011993
IPR008957;IPR000156
IPR008957;IPR014885
IPR008957;IPR000697
IPR000242;IPR000156
IPR000242;IPR014885
IPR007110;IPR011993
IPR007110;IPR000156
IPR007110;IPR014885
IPR007110;IPR000697
IPR003598;IPR011993
IPR003598;IPR000156
IPR003598;IPR014885
IPR003598;IPR000697
IPR003961;IPR011993
IPR003961;IPR000156
IPR003961;IPR014885
IPR003961;IPR000697
IPR013783;IPR011993
IPR013783;IPR000156
IPR013783;IPR014885
IPR013783;IPR000697
IPR013098;IPR011993
IPR013098;IPR000156
IPR013098;IPR014885
IPR013098;IPR000697
IPR003962;IPR011993
IPR003962;IPR000156
IPR003962;IPR014885
IPR003962;IPR000697
IPR013151;IPR011993
IPR013151;IPR000156
IPR013151;IPR014885
IPR013151;IPR000697
IPR000387;IPR000156
IPR000387;IPR014885
GO:0007155;GO:0030027
GO:0007155;GO:0007015
GO:0007155;GO:0008064
GO:0007155;GO:0007391
GO:0007155;GO:0017124
GO:0007155;GO:0048813
GO:0007155;GO:0007411
GO:0007155;GO:0008360
GO:0045467;GO:0030027
GO:0045467;GO:0007015
GO:0045467;GO:0008064
GO:0045467;GO:0007391
GO:0045467;GO:0017124
GO:0045467;GO:0048813
GO:0045467;GO:0007411
GO:0045467;GO:0008360
GO:0031290;GO:0030027
GO:0031290;GO:0007015
GO:0031290;GO:0008064
GO:0031290;GO:0007391
GO:0031290;GO:0017124
GO:0031290;GO:0048813
GO:0031290;GO:0007411
GO:0031290;GO:0008360
GO:0008045;GO:0030027
GO:0008045;GO:0007015
GO:0008045;GO:0008064
GO:0008045;GO:0007391
GO:0008045;GO:0017124
GO:0008045;GO:0048813
GO:0008045;GO:0007411
GO:0008045;GO:0008360
GO:0008360;GO:0030027
GO:0008360;GO:0007015
GO:0008360;GO:0008064
GO:0008360;GO:0007391
GO:0008360;GO:0017124
GO:0008360;GO:0048813
GO:0008360;GO:0007411
GO:0004725;GO:0030027
GO:0004725;GO:0007015
GO:0004725;GO:0008064
GO:0004725;GO:0007391
GO:0004725;GO:0017124
GO:0004725;GO:0048813
GO:0004725;GO:0007411
GO:0004725;GO:0008360
GO:0006470;GO:0030027
GO:0006470;GO:0007015
GO:0006470;GO:0008064
GO:0006470;GO:0007391
GO:0006470;GO:0017124
GO:0006470;GO:0048813
GO:0006470;GO:0007411
GO:0006470;GO:0008360
GO:0001700;GO:0030027
GO:0001700;GO:0007015
GO:0001700;GO:0008064
GO:0001700;GO:0007391
GO:0001700;GO:0017124
GO:0001700;GO:0048813
GO:0001700;GO:0007411
GO:0001700;GO:0008360
Q0P9X3;Q0PBH3
Q0P8E9;Q0PA93
Q0PC73;Q0P7Y1
IPR001543;IPR003593
IPR001543;IPR003439
IPR001689;IPR003593
IPR001689;IPR003439
GO:0009425;GO:0005524
GO:0009425;GO:0016887
GO:0006935;GO:0005524
GO:0006935;GO:0016887
GO:0001539;GO:0005524
GO:0001539;GO:0016887
GO:0003774;GO:0005524
GO:0003774;GO:0016887
Q0PC73;Q0PB51
IPR001543;IPR006638
IPR001543;IPR007197
IPR001543;IPR000160
IPR001543;IPR013785
IPR001543;IPR005244
IPR001689;IPR006638
IPR001689;IPR007197
IPR001689;IPR000160
IPR001689;IPR013785
IPR001689;IPR005244
GO:0009425;GO:0008152
GO:0009425;GO:0003824
GO:0006935;GO:0008152
GO:0006935;GO:0003824
GO:0001539;GO:0008152
GO:0001539;GO:0003824
GO:0003774;GO:0008152
GO:0003774;GO:0003824
Q0PC73;Q0P7Z6
Q0P9X8;Q0P8K6
IPR001638;IPR005503
IPR015683;IPR005503
Q0PC73;Q0PC77
Q9PHY8;Q0PA93
Q0PC73;Q0PA61
IPR001543;IPR003781
IPR001689;IPR003781
Q0PC73;Q0P862
IPR001543;IPR001750
IPR001689;IPR001750
GO:0009425;GO:0008137
GO:0006935;GO:0008137
GO:0001539;GO:0008137
GO:0003774;GO:0008137
Q0PC73;Q0P8T4
Q0PBM1;Q0PAY8
IPR002545;IPR006300
IPR001789;IPR006300
GO:0000160;GO:0019861
GO:0016740;GO:0019861
GO:0006935;GO:0019861
GO:0000156;GO:0019861
GO:0006355;GO:0019861
GO:0005622;GO:0019861
IPR006046;IPR000626
IPR013780;IPR000626
IPR013781;IPR000626
IPR006589;IPR000626
IPR006047;IPR000626
GO:0004558;GO:0000398
GO:0004558;GO:0005937
GO:0004558;GO:0031386
GO:0004558;GO:0006464
GO:0004558;GO:0000753
GO:0005634;GO:0005739
GO:0000086;GO:0005739
GO:0005737;GO:0005739
GO:0000079;GO:0005739
IPR005576;IPR001623
GO:0003899;GO:0001671
GO:0003899;GO:0001405
GO:0003899;GO:0030150
GO:0005736;GO:0001671
GO:0005736;GO:0001405
GO:0005736;GO:0030150
IPR000554;IPR013861
GO:0003735;GO:0005794
GO:0032040;GO:0005794
GO:0006412;GO:0005794
GO:0005843;GO:0005794
IPR006762;IPR013717
GO:0031902;GO:0030176
GO:0031902;GO:0005635
GO:0031902;GO:0000506
GO:0031902;GO:0006506
GO:0005634;GO:0030176
GO:0005634;GO:0005635
GO:0005634;GO:0000506
GO:0005634;GO:0006506
GO:0006817;GO:0030176
GO:0006817;GO:0005635
GO:0006817;GO:0000506
GO:0006817;GO:0006506
GO:0006360;GO:0030176
GO:0006360;GO:0005635
GO:0006360;GO:0000506
GO:0006360;GO:0006506
GO:0005774;GO:0030176
GO:0005774;GO:0005635
GO:0005774;GO:0000506
GO:0005774;GO:0006506
GO:0000723;GO:0030176
GO:0000723;GO:0005635
GO:0000723;GO:0000506
GO:0000723;GO:0006506
GO:0006383;GO:0030176
GO:0006383;GO:0005635
GO:0006383;GO:0000506
GO:0006383;GO:0006506
GO:0003924;GO:0030176
GO:0003924;GO:0005635
GO:0003924;GO:0000506
GO:0003924;GO:0006506
IPR001584;IPR002466
IPR013103;IPR002466
IPR001878;IPR002466
GO:0005739;GO:0005634
GO:0005739;GO:0008251
GO:0005739;GO:0006400
GO:0000706;GO:0005730
GO:0000722;GO:0005730
GO:0000727;GO:0005730
GO:0004017;GO:0005730
GO:0003691;GO:0005730
GO:0016887;GO:0005730
GO:0005739;GO:0005730
GO:0043047;GO:0005730
GO:0042138;GO:0005730
GO:0006303;GO:0005730
GO:0030870;GO:0005730
GO:0051880;GO:0005730
GO:0032078;GO:0005730
IPR002328;IPR005609
IPR002085;IPR005609
IPR013154;IPR005609
IPR013149;IPR005609
GO:0005737;GO:0008565
GO:0005737;GO:0006616
GO:0005737;GO:0031204
GO:0005737;GO:0031206
GO:0005737;GO:0005086
GO:0019650;GO:0008565
GO:0019650;GO:0006616
GO:0019650;GO:0031204
GO:0019650;GO:0031206
GO:0019650;GO:0005086
GO:0000721;GO:0008565
GO:0000721;GO:0006616
GO:0000721;GO:0031204
GO:0000721;GO:0031206
GO:0000721;GO:0005086
IPR013233;IPR013781
IPR013233;IPR004886
GO:0030433;GO:0009277
GO:0030433;GO:0030476
GO:0030433;GO:0042124
GO:0016485;GO:0009277
GO:0016485;GO:0030476
GO:0016485;GO:0042124
GO:0006506;GO:0009277
GO:0006506;GO:0030476
GO:0006506;GO:0042124
GO:0005783;GO:0009277
GO:0005783;GO:0030476
GO:0005783;GO:0042124
GO:0007329;GO:0000324
GO:0005634;GO:0000324
GO:0003700;GO:0000324
GO:0001403;GO:0000324
GO:0007124;GO:0000324
GO:0000747;GO:0000324
IPR007191;IPR001382
Q9VSD9;Q9W3R8
Q9UBT2;Q9W3R8
IPR000011;IPR000073
IPR000594;IPR000073
IPR000127;IPR000073
GO:0016925;GO:0005739
GO:0019948;GO:0005739
GO:0031510;GO:0005739
IPR004895;IPR013781
IPR004895;IPR004886
IPR014475;IPR013781
IPR014475;IPR004886
GO:0006888;GO:0009277
GO:0006888;GO:0005624
GO:0006888;GO:0042124
GO:0030134;GO:0009277
GO:0030134;GO:0005624
GO:0030134;GO:0042124
GO:0005783;GO:0005624
GO:0005634;GO:0016071
GO:0005634;GO:0019898
GO:0005634;GO:0005743
GO:0005737;GO:0016071
GO:0005737;GO:0019898
GO:0005737;GO:0005743
GO:0006878;GO:0006379
GO:0006878;GO:0005737
GO:0006878;GO:0005730
GO:0006878;GO:0000172
GO:0006878;GO:0006364
GO:0005737;GO:0006379
GO:0005737;GO:0005730
GO:0005737;GO:0000172
GO:0005737;GO:0006364
GO:0006879;GO:0006379
GO:0006879;GO:0005737
GO:0006879;GO:0005730
GO:0006879;GO:0000172
GO:0006879;GO:0006364
GO:0003735;GO:0005783
GO:0006412;GO:0005783
GO:0000723;GO:0005783
GO:0005842;GO:0005783
IPR004827;IPR000591
IPR004827;IPR001060
IPR004827;IPR000198
IPR011616;IPR000591
IPR011616;IPR001060
IPR011616;IPR000198
GO:0005634;GO:0007264
GO:0005634;GO:0005935
GO:0005634;GO:0005737
GO:0005634;GO:0005100
GO:0003700;GO:0007264
GO:0003700;GO:0005935
GO:0003700;GO:0005737
GO:0003700;GO:0005100
GO:0006357;GO:0007264
GO:0006357;GO:0005935
GO:0006357;GO:0005737
GO:0006357;GO:0005100
IPR007257;IPR014001
IPR007257;IPR011545
IPR013780;IPR001451
IPR013781;IPR001451
IPR006589;IPR001451
IPR006047;IPR001451
28.740630758913653
28.740630758913653
28.740630758913653
28.740630758913653
28.740630758913653
28.740630758913653
28.740630758913653
28.740630758913653
28.740630758913653
28.740630758913653
28.740630758913653
28.740630758913653
28.740630758913653
28.740630758913653
28.740630758913653
28.740630758913653
28.740630758913653
28.740630758913653
28.740630758913653
12.023600406232172
12.023600406232172
15.350441780889163
15.350441780889163
12.023600406232172
15.350441780889163
15.350441780889163
15.350441780889163
15.350441780889163
12.023600406232172
15.350441780889163
15.350441780889163
12.023600406232172
12.023600406232172
15.350441780889163
12.023600406232172
12.023600406232172
12.023600406232172
12.023600406232172
12.023600406232172
12.023600406232172
12.023600406232172
12.023600406232172
12.023600406232172
12.023600406232172
12.023600406232172
12.023600406232172
12.023600406232172
12.023600406232172
12.023600406232172
15.350441780889163
12.023600406232172
12.023600406232172
12.023600406232172
12.023600406232172
15.350441780889163
12.023600406232172
12.023600406232172
12.023600406232172
12.023600406232172
12.023600406232172
12.023600406232172
12.023600406232172
12.023600406232172
12.023600406232172
12.023600406232172
12.023600406232172
12.023600406232172
12.023600406232172
12.023600406232172
12.023600406232172
15.350441780889163
12.023600406232172
12.023600406232172
12.023600406232172
12.023600406232172
15.350441780889163
12.023600406232172
12.023600406232172
12.023600406232172
12.023600406232172
12.023600406232172
12.023600406232172
12.023600406232172
12.023600406232172
12.023600406232172
12.023600406232172
12.023600406232172
12.023600406232172
12.023600406232172
12.023600406232172
12.023600406232172
15.350441780889163
12.023600406232172
12.023600406232172
18.810341095958943
18.810341095958943
18.810341095958943
18.810341095958943
18.810341095958943
18.810341095958943
18.810341095958943
18.810341095958943
18.810341095958943
18.810341095958943
18.810341095958943
18.810341095958943
18.810341095958943
18.810341095958943
18.810341095958943
18.810341095958943
18.810341095958943
18.810341095958943
18.810341095958943
18.810341095958943
18.810341095958943
18.810341095958943
18.810341095958943
18.810341095958943
18.810341095958943
18.810341095958943
18.810341095958943
18.810341095958943
13.039374558075167
13.039374558075167
13.039374558075167
13.039374558075167
13.039374558075167
13.039374558075167
13.039374558075167
13.039374558075167
13.039374558075167
13.039374558075167
13.039374558075167
13.039374558075167
13.039374558075167
13.039374558075167
13.039374558075167
13.039374558075167
7.25218834342008
13.039374558075167
13.039374558075167
7.25218834342008
13.039374558075167
13.039374558075167
13.039374558075167
13.039374558075167
13.039374558075167
13.039374558075167
13.039374558075167
13.039374558075167
7.25218834342008
13.039374558075167
13.039374558075167
7.25218834342008
13.039374558075167
13.039374558075167
13.039374558075167
13.039374558075167
13.039374558075167
13.039374558075167
13.039374558075167
13.039374558075167
7.25218834342008
13.039374558075167
13.039374558075167
7.25218834342008
13.039374558075167
13.039374558075167
13.039374558075167
13.039374558075167
13.039374558075167
13.039374558075167
13.039374558075167
13.039374558075167
13.039374558075167
13.039374558075167
13.039374558075167
13.039374558075167
13.039374558075167
13.039374558075167
13.039374558075167
13.039374558075167
13.039374558075167
13.039374558075167
13.039374558075167
13.039374558075167
13.039374558075167
13.039374558075167
13.039374558075167
13.039374558075167
13.039374558075167
13.039374558075167
13.039374558075167
13.039374558075167
23.7806231559753
23.7806231559753
23.7806231559753
23.7806231559753
23.7806231559753
23.7806231559753
23.7806231559753
23.7806231559753
16.441771011733817
16.441771011733817
23.7806231559753
23.7806231559753
23.7806231559753
23.7806231559753
23.7806231559753
23.7806231559753
16.441771011733817
16.441771011733817
23.7806231559753
23.7806231559753
23.7806231559753
23.7806231559753
23.7806231559753
23.7806231559753
23.7806231559753
23.7806231559753
23.7806231559753
23.7806231559753
16.24554098977215
16.24554098977215
16.24554098977215
16.24554098977215
16.24554098977215
16.24554098977215
16.24554098977215
16.24554098977215
16.24554098977215
16.24554098977215
16.24554098977215
16.24554098977215
16.24554098977215
16.24554098977215
16.24554098977215
16.24554098977215
16.24554098977215
16.24554098977215
16.24554098977215
16.24554098977215
16.24554098977215
16.24554098977215
16.24554098977215
16.24554098977215
16.24554098977215
16.24554098977215
16.24554098977215
16.24554098977215
16.24554098977215
16.24554098977215
16.24554098977215
16.24554098977215
16.24554098977215
16.24554098977215
16.24554098977215
16.24554098977215
16.24554098977215
16.24554098977215
16.24554098977215
16.24554098977215
16.24554098977215
16.24554098977215
16.24554098977215
16.24554098977215
16.24554098977215
16.24554098977215
16.24554098977215
16.24554098977215
16.24554098977215
16.24554098977215
4.540253199258916
4.540253199258916
4.540253199258916
4.540253199258916
4.540253199258916
4.540253199258916
4.540253199258916
4.540253199258916
4.540253199258916
4.540253199258916
4.540253199258916
4.540253199258916
4.540253199258916
4.540253199258916
4.540253199258916
4.540253199258916
4.540253199258916
4.540253199258916
4.540253199258916
4.540253199258916
4.540253199258916
4.540253199258916
4.540253199258916
4.540253199258916
4.540253199258916
4.540253199258916
4.540253199258916
4.540253199258916
4.540253199258916
4.540253199258916
4.540253199258916
4.540253199258916
4.540253199258916
4.540253199258916
4.540253199258916
4.540253199258916
4.540253199258916
4.540253199258916
4.540253199258916
4.540253199258916
4.540253199258916
4.540253199258916
4.540253199258916
4.540253199258916
4.540253199258916
4.540253199258916
4.540253199258916
4.540253199258916
4.540253199258916
4.540253199258916
4.540253199258916
4.540253199258916
4.540253199258916
4.540253199258916
4.540253199258916
4.540253199258916
4.540253199258916
4.540253199258916
4.540253199258916
4.540253199258916
4.540253199258916
4.540253199258916
4.540253199258916
4.540253199258916
4.540253199258916
4.540253199258916
4.540253199258916
4.540253199258916
4.540253199258916
4.540253199258916
4.540253199258916
4.540253199258916
4.540253199258916
4.540253199258916
4.540253199258916
4.540253199258916
4.540253199258916
4.540253199258916
4.540253199258916
4.540253199258916
4.540253199258916
4.540253199258916
4.540253199258916
4.540253199258916
4.540253199258916
4.540253199258916
4.540253199258916
4.540253199258916
4.540253199258916
4.540253199258916
4.540253199258916
4.540253199258916
4.540253199258916
4.540253199258916
4.540253199258916
4.540253199258916
4.540253199258916
4.540253199258916
4.540253199258916
4.540253199258916
4.540253199258916
4.540253199258916
4.540253199258916
4.540253199258916
4.540253199258916
4.540253199258916
4.540253199258916
4.540253199258916
4.540253199258916
4.540253199258916
4.540253199258916
4.540253199258916
4.540253199258916
4.540253199258916
4.540253199258916
4.540253199258916
4.540253199258916
4.540253199258916
4.540253199258916
4.540253199258916
4.540253199258916
4.540253199258916
4.540253199258916
4.540253199258916
4.540253199258916
4.540253199258916
4.540253199258916
4.540253199258916
4.540253199258916
4.540253199258916
4.540253199258916
4.540253199258916
4.540253199258916
4.540253199258916
4.540253199258916
4.540253199258916
9.675331343424624
9.675331343424624
9.675331343424624
9.675331343424624
9.675331343424624
9.675331343424624
9.675331343424624
9.675331343424624
9.675331343424624
9.675331343424624
9.675331343424624
9.675331343424624
9.675331343424624
9.675331343424624
9.675331343424624
9.675331343424624
9.675331343424624
9.675331343424624
9.675331343424624
9.675331343424624
9.675331343424624
9.675331343424624
9.675331343424624
9.675331343424624
9.675331343424624
9.675331343424624
9.675331343424624
9.675331343424624
9.675331343424624
9.675331343424624
9.675331343424624
9.675331343424624
9.675331343424624
9.675331343424624
9.675331343424624
9.675331343424624
9.675331343424624
9.675331343424624
9.675331343424624
9.675331343424624
9.675331343424624
9.675331343424624
9.675331343424624
9.675331343424624
9.675331343424624
9.675331343424624
9.675331343424624
9.675331343424624
9.675331343424624
9.675331343424624
9.675331343424624
9.675331343424624
9.675331343424624
9.675331343424624
9.675331343424624
9.675331343424624
9.675331343424624
9.675331343424624
9.675331343424624
9.675331343424624
9.675331343424624
9.675331343424624
9.675331343424624
9.675331343424624
9.675331343424624
9.675331343424624
9.675331343424624
9.675331343424624
9.675331343424624
9.675331343424624
9.675331343424624
9.675331343424624
9.675331343424624
9.675331343424624
9.675331343424624
9.675331343424624
9.675331343424624
9.675331343424624
9.675331343424624
9.675331343424624
9.675331343424624
9.675331343424624
9.675331343424624
9.675331343424624
9.675331343424624
9.675331343424624
9.675331343424624
9.675331343424624
9.675331343424624
9.675331343424624
9.675331343424624
9.675331343424624
9.675331343424624
9.675331343424624
9.675331343424624
9.675331343424624
9.675331343424624
9.675331343424624
9.675331343424624
9.675331343424624
63.8137190869476
63.8137190869476
34.57674575619569
34.57674575619569
34.57674575619569
34.57674575619569
34.57674575619569
34.57674575619569
34.57674575619569
34.57674575619569
34.57674575619569
34.57674575619569
34.57674575619569
34.57674575619569
34.57674575619569
28.740630758913653
28.740630758913653
28.740630758913653
28.740630758913653
28.740630758913653
28.740630758913653
28.740630758913653
28.740630758913653
28.740630758913653
28.740630758913653
28.740630758913653
28.740630758913653
28.740630758913653
28.740630758913653
28.740630758913653
28.740630758913653
28.740630758913653
28.740630758913653
28.740630758913653
63.8137190869476
55.31352667307114
55.31352667307114
55.31352667307114
63.8137190869476
63.8137190869476
55.31352667307114
55.31352667307114
55.31352667307114
44.207328780413846
44.207328780413846
44.207328780413846
44.207328780413846
44.207328780413846
44.207328780413846
44.207328780413846
63.8137190869476
40.35616843187178
40.35616843187178
40.35616843187178
40.35616843187178
40.35616843187178
40.35616843187178
40.35616843187178
40.35616843187178
40.35616843187178
38.70684239229171
38.70684239229171
38.70684239229171
38.70684239229171
38.70684239229171
38.70684239229171
38.70684239229171
38.70684239229171
38.70684239229171
38.70684239229171
51.958671943517984
51.958671943517984
51.958671943517984
51.958671943517984
44.207328780413846
44.207328780413846
44.207328780413846
44.207328780413846
44.207328780413846
44.207328780413846
44.207328780413846
49.04106074574309
49.04106074574309
49.04106074574309
49.04106074574309
49.04106074574309
21.079274124215964
21.079274124215964
21.079274124215964
21.079274124215964
21.079274124215964
21.079274124215964
21.079274124215964
21.079274124215964
21.079274124215964
21.079274124215964
21.079274124215964
21.079274124215964
21.079274124215964
21.079274124215964
21.079274124215964
21.079274124215964
21.079274124215964
21.079274124215964
21.079274124215964
21.079274124215964
21.079274124215964
21.079274124215964
21.079274124215964
21.079274124215964
21.079274124215964
21.079274124215964
21.079274124215964
21.079274124215964
21.079274124215964
21.079274124215964
21.079274124215964
21.079274124215964
21.079274124215964
46.47825895339885
46.47825895339885
46.47825895339885
46.47825895339885
46.47825895339885
46.47825895339885
34.57674575619569
34.57674575619569
34.57674575619569
34.57674575619569
34.57674575619569
34.57674575619569
34.57674575619569
34.57674575619569
34.57674575619569
34.57674575619569
34.57674575619569
34.57674575619569
34.57674575619569
28.740630758913653
28.740630758913653
28.740630758913653
28.740630758913653
28.740630758913653
28.740630758913653
28.740630758913653
28.740630758913653
28.740630758913653
28.740630758913653
28.740630758913653
28.740630758913653
28.740630758913653
28.740630758913653
28.740630758913653
28.740630758913653
28.740630758913653
28.740630758913653
28.740630758913653
33.38506136818128
33.38506136818128
33.38506136818128
33.38506136818128
33.38506136818128
33.38506136818128
33.38506136818128
33.38506136818128
33.38506136818128
33.38506136818128
33.38506136818128
33.99555564103233
33.38506136818128
33.99555564103233
46.47825895339885
46.47825895339885
46.47825895339885
46.47825895339885
46.47825895339885
46.47825895339885
63.8137190869476
42.17944379590622
42.17944379590622
42.17944379590622
42.17944379590622
42.17944379590622
42.17944379590622
42.17944379590622
42.17944379590622
34.610022114441755
34.610022114441755
34.610022114441755
34.610022114441755
34.610022114441755
34.610022114441755
34.610022114441755
34.610022114441755
34.610022114441755
34.610022114441755
34.610022114441755
46.47825895339885
46.47825895339885
46.47825895339885
46.47825895339885
46.47825895339885
46.47825895339885
33.416386319913364
33.416386319913364
33.416386319913364
33.416386319913364
33.416386319913364
33.416386319913364
33.416386319913364
33.416386319913364
33.416386319913364
33.416386319913364
33.416386319913364
33.416386319913364
33.416386319913364
33.416386319913364
51.958671943517984
51.958671943517984
51.958671943517984
51.958671943517984
29.551886302678778
29.551886302678778
29.551886302678778
29.551886302678778
29.551886302678778
29.551886302678778
29.551886302678778
29.551886302678778
29.551886302678778
29.551886302678778
29.551886302678778
29.551886302678778
29.551886302678778
29.551886302678778
29.551886302678778
29.551886302678778
29.551886302678778
29.551886302678778
59.21548693997119
59.21548693997119
51.958671943517984
51.958671943517984
51.958671943517984
51.958671943517984
